svm_type c_svc
kernel_type rbf
gamma 64
nr_class 2
total_sv 149
rho -0.951153
label 0 1
nr_sv 129 20
SV
0.03660598870954517 1:1 2:1 3:1 4:0.6210335 5:0.3806922 
0.008807212000097308 1:0.009273059 2:0.01229351 3:0.025 4:0.008857897 5:0.1607143 
0.03940893787490973 1:0.612353 2:0.476835 3:0.625 4:0.5233717 5:0.3132775 
0.01177043890085035 1:0.007206443 2:0.01435818 4:0.008631713 5:0.2058824 
0.01515879315191051 1:0.002331496 2:0.002177265 5:0.3181818 
0.04684070959154016 1:0.5603009 2:0.4587908 3:0.4642857 4:0.4103048 5:0.3858521 
0.03107568516035908 1:0.08467571 2:0.08188869 3:0.5 4:0.03894814 5:0.4881101 
1 1:0.05606189 2:0.03158799 4:0.001560549 5:0.9659736 
0.02328076441048898 1:0.1214498 2:0.0822653 4:0.02358994 5:0.5977312 
0.8126569145196596 1:0.05054728 2:0.03784909 4:0.0007465237 5:0.9503759 
0.01937227972568169 1:0.4339465 2:0.08798306 3:0.5909091 4:0.7651376 6:1 
0.01837792438650548 1:0.001225021 2:0.001976939 5:0.4375 
0.01916742654774823 1:0.0006481348 2:9.848012e-05 
0.006445589699009883 1:0.0788564 2:0.08661874 3:0.06 4:0.00400193 5:0.01552511 
1 1:0.02606942 2:0.02000241 4:0.0001670565 5:0.980663 
1 1:0.02606942 2:0.02000241 4:0.0001670565 5:0.980663 
1 1:0.02606942 2:0.02000241 4:0.0001670565 5:0.980663 
0.01877550465226661 1:0.08131241 2:0.08288855 3:0.4375 4:0.02864992 5:0.502924 
0.01087219108302843 1:0.3029006 2:0.07265238 3:0.4375 4:0.59456 5:0.01758242 6:1 
0.002841808455643639 1:0.01217309 2:0.01538668 3:0.03125 4:0.00990634 5:0.140625 
0.04215700333870132 1:0.6834771 2:0.4825521 3:0.5789474 4:0.6404438 5:0.2308522 
0.01983986812873997 1:0.4700288 2:0.1366 3:0.5263158 4:0.7328969 5:0.03137255 6:1 
0.003146486448636965 1:0.3526942 2:0.1022367 3:0.5121951 4:0.6392707 5:0.04420695 6:1 
0.01118603809055528 1:0.002056027 2:0.0002748606 3:0.02439024 
1 1:0.03933672 2:0.02362069 4:0.0008760864 5:0.9784616 
0.004956799434449593 1:0.02602275 2:0.01449898 4:0.07137129 5:0.172093 
0.01593883740212911 1:0.1249092 2:0.05903946 3:0.25 4:0.2726408 5:0.1375969 6:1 
0.03448673772503462 1:0.3172017 2:0.1085292 3:1 4:0.5623216 5:0.07477342 6:1 
0.02816014816316378 1:0.2637758 2:0.3682532 4:0.0208901 5:0.8955495 
0.008403186642514578 1:0.5614996 2:0.179101 3:1 4:0.7889032 5:0.05101275 6:1 
0.02707826858456154 1:0.7606363 2:0.6373811 3:1 4:0.7288381 5:0.2255602 
0.01747150542468985 1:0.6106264 2:0.2063205 3:1 4:0.761653 5:0.0769887 6:1 
0.01005221685182748 1:0.6404674 2:0.2190149 3:1 4:0.7964217 5:0.06971385 6:1 
0.0241641490139838 1:0.8 2:0.630278 3:1 4:0.7241622 5:0.2280135 
0.02465026278991746 1:0.2564141 2:0.4321162 4:0.05615498 5:0.7325922 
0.02314084666396482 1:0.5054764 2:0.1369325 3:0.5652174 4:0.6048488 5:0.0284951 6:1 
0.002244163281515166 1:0.1033758 2:0.06162639 3:0.3478261 4:0.1268577 5:0.04063861 
0.04238568561499839 1:0.6553639 2:0.303852 3:1 4:0.7177128 5:0.08905677 
0.03113508481712443 1:0.4279172 2:0.1128333 3:0.5238096 4:0.4957125 5:0.03170829 6:1 
0.02006228427401105 1:0.3486958 2:0.08527599 3:0.4117647 4:0.4190213 5:0.04386952 6:1 
0.0421264544606188 1:0.5514807 2:0.2627957 3:1 4:0.5987784 5:0.1411806 
0.03902402685398457 1:0.2491822 2:0.05356506 3:0.1176471 4:0.3046512 6:1 
0.04834689777080953 1:0.269888 2:0.1399755 3:0.6666667 4:0.3036608 5:0.2150655 6:1 
0.008561637419305159 1:0.1196229 2:0.1859992 4:0.007281424 5:0.6724138 
0.01810188906486756 1:0.3095596 2:0.1010425 3:0.3076923 4:0.3507618 5:0.04742345 6:1 
0.02323323336826901 1:0.1957192 2:0.08395767 3:0.1818182 4:0.2252127 5:0.06474191 6:1 
0.02393744275620535 1:0.129902 2:0.06356524 3:0.4210526 4:0.154528 5:0.04063861 
0.001930096981794915 1:0.2174761 2:0.05706633 3:0.2857143 4:0.3096376 5:0.03139013 6:1 
0.03025216217565072 1:0.331773 2:0.4267403 4:0.08506481 5:0.7313345 
0.01708484805292374 1:0.05519797 2:0.03294092 3:0.2380952 4:0.0336558 5:0.4134276 
0.04097574568103608 1:0.2331803 2:0.07190923 3:0.3333333 4:0.3041811 5:0.07363014 
0.02242858492448899 1:0.1859553 2:0.1137405 3:0.3333333 4:0.2873085 5:0.1265823 6:1 
1 1:0.1063162 2:0.1822879 5:0.9483395 
0.03430141898748518 1:0.05649274 2:0.02483552 3:0.3333333 4:0.1169591 5:0.1111111 
0.2840534165197919 1:0.085462 2:0.2086915 5:0.9483395 
0.04320421040246981 1:0.9905393 2:0.9886821 3:1 4:0.5009512 5:0.5011143 
0.01322395089554107 1:0.3446862 2:0.1515104 3:0.8 4:0.5212305 5:0.1610247 6:1 
0.003981914400595692 1:0.6786158 2:0.2045102 3:0.9333333 4:0.8313346 5:0.03930131 6:1 
0.03600685406622236 1:0.9855654 2:0.9277287 3:1 4:0.7306726 5:0.2703201 
0.02764405496311464 1:0.3023256 2:0.04457825 3:0.9 4:0.5625433 5:0.02051282 6:1 
0.006704309424205646 1:0.5847961 2:0.1894414 3:0.9285714 4:0.7509419 5:0.09926731 6:1 
0.01647468088131483 1:0.3902533 2:0.06814708 3:0.8333333 4:0.6289526 5:0.006937562 6:1 
0.02676119798640385 1:0.01005608 2:0.0138386 3:0.1666667 4:0.003311966 5:0.4038461 
0.0349140470023542 1:0.6972694 2:0.1027536 3:1 4:0.9656652 6:1 
0.004851858983174414 1:0.02085573 2:0.1328463 
0.02530949240776598 1:0.03805414 2:0.1384318 
0.03996914240789828 1:0.4437034 2:0.05943667 3:1 4:0.8933333 6:1 
0.009077203353178872 1:0.08866222 2:0.05361012 5:0.3628319 
0.008655832885790762 1:0.5944023 2:0.07628415 3:1 4:0.9393939 6:1 
0.01043972702574443 1:0.610972 2:0.104985 3:1 4:0.9710145 6:1 
0.005910334813471214 1:0.5230147 2:0.0914387 3:1 4:0.9153474 5:0.02756286 6:1 
0.03353892213358194 1:0.4271551 2:0.1763135 3:0.875 4:0.7656183 5:0.1001981 6:1 
0.02168512026457668 1:0.05644558 2:0.193425 3:0.04166667 4:0.002331629 5:0.6578249 
0.03305807412557749 1:0.2829802 2:0.135501 3:0.8421053 4:0.491332 5:0.2181965 6:1 
0.01634893785474072 1:0.05586971 2:0.07665028 3:0.1052632 4:0.00907258 5:0.6518219 
0.04270825599921829 1:0.0777512 2:0.00912617 4:0.1985294 
0.02160696017407825 1:0.3643056 2:0.1619367 3:0.85 4:0.5908229 5:0.1731294 6:1 
0.04587081784968376 1:0.8191448 2:0.3950212 3:0.9464286 4:0.9517147 5:0.02293194 6:1 
0.002884098584579084 1:0.06383431 2:0.01149777 3:0.03571429 4:0.1 
0.01655648672148297 1:0.5947141 2:0.2475719 3:0.90625 4:0.8199949 5:0.08144797 6:1 
0.03620488123574332 1:0.00875 2:0.05190374 3:0.34375 5:0.8241758 
0.004920328051455603 1:0.4697612 2:0.1284276 3:0.8125 4:0.6926866 5:0.01107011 6:1 
0.01835260490960483 1:0.1171032 2:0.09943251 4:0.06001934 5:0.2861842 
0.0161931056469998 1:0.1521572 2:0.1390971 3:0.1875 4:0.07132263 5:0.3291139 
0.01654510918114149 1:0.3985215 2:0.09320293 3:0.7692308 4:0.6703297 6:1 
0.01981338452085656 1:0.1263441 2:0.08528695 4:0.08818105 5:0.2003546 
0.02403040778394338 1:0.1769713 2:0.1510123 3:0.2307692 4:0.08895735 5:0.3291139 
0.03846409413804031 1:0.5928753 2:0.4173747 3:0.625 4:0.704633 5:0.07573845 6:1 
0.04814207271605851 1:0.1153324 2:0.1099738 4:0.06395096 5:0.3294118 6:1 
0.0265412330763022 1:0.1730048 2:0.1517567 3:0.375 4:0.184543 5:0.07327142 
0.02873831382172659 1:0.1410462 2:0.1065035 3:0.375 4:0.08054844 5:0.3291139 
0.03089554521555177 1:0.5029412 2:0.2879725 3:0.625 4:0.6764381 5:0.04575163 6:1 
0.04033828135518632 1:1 2:1 3:1 4:0.8583812 5:0.1421743 
0.04476313321312329 1:0.6737345 2:0.4450309 3:0.8095238 4:0.9215261 5:0.02037475 6:1 
0.004228138258259641 1:0.1562691 2:0.1131066 4:0.01212774 5:0.02980392 
0.0296488031777898 1:0.03983331 2:0.06956585 3:0.1428571 4:0.0007476994 5:0.9230769 
0.04712461948748581 1:0.9409241 2:0.7912658 3:0.952381 4:0.8961039 5:0.1042074 
0.04879108154358058 1:0.6867498 2:0.4851332 3:0.8518519 4:0.6766261 5:0.287183 6:1 
1 1:0.1863968 2:0.1265461 4:0.00213004 5:0.9905303 
0.01951607790816777 1:0.4559575 2:0.4040128 3:0.6363636 4:0.8282343 5:0.0502017 6:1 
0.03147302159506952 1:0.01021868 2:0.1431609 4:0.003783784 5:0.44 
0.01450145928710649 1:0.5018055 2:0.07727008 3:0.7407407 4:0.7826087 6:1 
0.00201849006119903 1:0.1705229 2:0.1160063 4:0.01205241 5:0.02980392 
0.02701832869582632 1:0.4509158 2:0.4013012 3:0.6923077 4:0.8231876 5:0.05111821 6:1 
0.04320984229229091 1:0.2623997 2:0.1202205 4:0.027139 5:0.02980392 
0.03562990378269389 1:0.1486579 2:0.01548805 3:0.3636364 4:0.416 6:1 
0.006639931710461584 1:0.9737418 2:0.9468913 3:1 4:0.8020116 5:0.1990637 
0.01961654636999446 1:0.2419767 2:0.0280684 3:0.4166667 4:0.4919786 6:1 
0.00359758063073278 1:0.42572 2:0.0637233 3:0.65 4:0.7269373 6:1 
0.01769693242974414 1:0.5254491 2:0.0925372 3:0.8055556 4:0.7789203 6:1 
0.03322848728490746 1:0.3230509 2:0.0418356 3:0.5882353 4:0.6492891 6:1 
0.1721265335231975 1:0.05508475 2:0.0754432 3:0.1764706 4:0.001133952 5:0.9230769 
0.02404782604539913 1:0.2864316 2:0.05088371 3:0.3090909 4:0.411773 5:0.1218469 6:1 
0.03761929246061622 1:0.7374682 2:0.2094244 3:0.8190476 4:0.849954 5:0.0408586 6:1 
0.03604613324830151 1:0.3797809 2:0.04557544 3:0.3650794 4:0.6166282 6:1 
0.03038213616572549 1:0.03296813 2:0.04850771 3:0.3650794 4:0.004542188 5:0.3444109 
0.009959406240742773 1:0.156013 2:0.07010591 3:0.2941177 4:0.2260557 5:0.1883681 6:1 
0.03506628379176164 1:0.09479956 2:0.05001708 3:0.1764706 4:0.1959511 5:0.1857143 
0.00123982563564961 1:0.007448537 2:0.01116502 3:0.02941176 4:0.002527953 5:0.5272727 
0.002518220579542171 1:0.008125677 2:0.003102152 3:0.02941176 4:0.00802139 5:0.25 
1 1:0.02248104 2:0.02340963 4:0.000386573 5:0.9638554 
0.04087659812839611 1:0.1153243 2:0.05927667 3:0.2258064 4:0.1462705 5:0.2533993 6:1 
0.8426775127516735 1:0.02907463 2:0.08436389 4:0.0001414254 5:0.9466119 
0.03734370121787986 1:0.6247164 2:0.1666465 3:0.68 4:0.8172685 5:0.004778287 6:1 
0.02887067384747811 1:0.001850746 2:0.007320733 5:0.6129032 
0.001977555613829022 1:0.4375056 2:0.09997762 3:0.4893617 4:0.6848744 5:0.008432744 6:1 
0.01347479297198912 1:0.06298929 2:0.04817881 3:0.1276596 4:0.08521595 5:0.1857143 
1 1:0.01493746 2:0.02254926 4:0.0001681143 5:0.9638554 
1 1:0.01638697 2:0.02261416 4:0.0001964379 5:0.9638554 
-1 1:0.03635015 2:0.02487966 5:1 
-0.1884249809408406 1:0.01420093 2:0.007179089 5:1 
-0.3972609723796604 1:0.03262006 2:0.02576101 5:1 
-1 1:0.02758503 2:0.01933186 5:1 
-1 1:0.01858991 2:0.009872075 5:1 
-1 1:0.04151537 2:0.0259533 5:1 
-0.1865289130892457 1:0.01260315 2:0.05916134 5:1 
-1 1:0.01194709 2:0.05999835 5:1 
-0.397190524022497 1:0.02474956 2:0.07048799 5:1 
-0.2729214531688555 1:0.1045151 2:0.1139582 5:1 
-1 1:0.0809959 2:0.1340944 5:1 
-1 1:0.2117386 2:0.1334107 5:1 
-1 1:0.01417497 2:0.005643158 5:1 
-1 1:0.1321355 2:0.1138584 5:1 
-1 1:0.1097337 2:0.1129449 5:1 
-1 1:0.014068 2:0.006764158 5:1 
-1 1:0.003474351 2:0.01531858 3:0.09090909 5:1 
-0.04916511173834347 1:0.009117433 2:0.004016376 5:1 
-0.2944783584475438 1:0.0003054368 2:0.001366148 5:1 
-1 1:0.0002314279 2:0.001270455 5:1 
