svm_type c_svc
kernel_type rbf
gamma 64
nr_class 2
total_sv 93
rho 0.0955155
label 0 1
nr_sv 40 53
SV
0.5178926373488412 2:1 3:1 4:1 5:0.6210335 
0.7923216345885294 2:0.612353 3:0.476835 4:0.625 5:0.5233717 
0.03794533964942012 2:0.5603009 3:0.4587908 4:0.4642857 5:0.4103048 
0.9974207340590846 2:0.5603009 3:0.4587908 4:0.4642857 5:0.4103048 
0.8671713936560773 2:0.08467571 3:0.08188869 4:0.5 5:0.03894814 
0.6514715303927274 2:0.0006481348 3:9.848012e-05 
0.8820312859312437 2:0.6834771 3:0.4825521 4:0.5789474 5:0.6404438 
0.5888132059499064 2:0.7606363 3:0.6373811 4:1 5:0.7288381 
0.557240888921128 2:0.8 3:0.630278 4:1 5:0.7241622 
0.3644647224925189 2:0.2564141 3:0.4321162 5:0.05615498 
0.9260876896574131 2:0.6553639 3:0.303852 4:1 5:0.7177128 
0.9269422534382168 2:0.5514807 3:0.2627957 4:1 5:0.5987784 
0.1633815742591659 2:0.1278727 3:0.0551575 5:0.01961048 
0.3421078010175773 2:0.129902 3:0.06356524 4:0.4210526 5:0.154528 
0.7486965259423337 2:0.331773 3:0.4267403 5:0.08506481 
0.9293249782229959 2:0.2331803 3:0.07190923 4:0.3333333 5:0.3041811 
0.3840298890074311 2:0.05649274 3:0.02483552 4:0.3333333 5:0.1169591 
0.1144824235384321 2:0.10357 3:0.03737384 5:0.006183221 
0.8752536750203491 2:0.9905393 3:0.9886821 4:1 5:0.5009512 
0.6428532886793036 2:0.9855654 3:0.9277287 4:1 5:0.7306726 
0.4789647678016071 2:0.2576202 3:0.2977873 5:0.01760659 
0.6295619351397151 2:0.1210492 3:0.3160157 5:0.001219707 
0.07434234982973947 2:0.1797913 3:0.3543139 5:0.001812318 
0.07812985305571503 2:0.1000184 3:0.2787101 5:0.0007015698 
0.3478104080581441 2:0.05644558 3:0.193425 4:0.04166667 5:0.002331629 
0.888982997979013 2:0.0777512 3:0.00912617 5:0.1985294 
0.03623763924146241 2:0.003902063 3:0.04135877 4:0.1964286 
0.6231577215185762 2:0.00875 3:0.05190374 4:0.34375 
0.1354796757349839 2:0.1521572 3:0.1390971 4:0.1875 5:0.07132263 
0.1120705777397422 2:0.1263441 3:0.08528695 5:0.08818105 
0.639003063263102 2:0.1769713 3:0.1510123 4:0.2307692 5:0.08895735 
0.5621113056024705 2:0.1730048 3:0.1517567 4:0.375 5:0.184543 
0.8824889533744498 2:1 3:1 4:1 5:0.8583812 
1 2:0.9409241 3:0.7912658 4:0.952381 5:0.8961039 
0.4440548871934722 2:0.01021868 3:0.1431609 5:0.003783784 
0.8838159323976023 2:0.2623997 3:0.120169 5:0.027139 
0.1828730885885997 2:0.07455838 3:0.0782858 4:0.2727273 5:0.00191411 
0.07628819013574788 2:0.05508475 3:0.0754432 4:0.1764706 5:0.001133952 
0.7126191198664177 2:0.09479956 3:0.05001708 4:0.1764706 5:0.1959511 
0.6299575571075867 2:0.00513186 3:0.01088445 4:0.1612903 
-0.071259265906781 1:1 2:0.259326 3:0.1034377 4:0.3571429 5:0.4562409 
-0.316657532827987 1:1 2:0.4339465 3:0.08798306 4:0.5909091 5:0.7651376 
-0.2069657781986749 1:1 2:0.3029006 3:0.07265238 4:0.4375 5:0.59456 
-0.3624568083526513 1:1 2:0.4700288 3:0.1366 4:0.5263158 5:0.7328969 
-0.2607302180045554 1:1 2:0.1249092 3:0.05903946 4:0.25 5:0.2726408 
-0.672612632862995 1:1 2:0.3172017 3:0.1085292 4:1 5:0.5623216 
-0.1288931691640749 1:1 2:0.5614996 3:0.179101 4:1 5:0.7889032 
-0.3533597633569567 1:1 2:0.6106264 3:0.2063205 4:1 5:0.761653 
-0.215731316954655 1:1 2:0.6404674 3:0.2190149 4:1 5:0.7964217 
-0.4244783837490867 1:1 2:0.5054764 3:0.1369325 4:0.5652174 5:0.6048488 
-0.5751624089775664 1:1 2:0.4279172 3:0.1128333 4:0.5238096 5:0.4957125 
-0.3736291499420121 1:1 2:0.3486958 3:0.08527599 4:0.4117647 5:0.4190213 
-0.7666724319354702 1:1 2:0.2491822 3:0.05356506 4:0.1176471 5:0.3046512 
-0.8898909055077727 1:1 2:0.269888 3:0.1399755 4:0.6666667 5:0.3036608 
-0.4510396049312044 1:1 2:0.3095596 3:0.1010425 4:0.3076923 5:0.3507618 
-0.09620026132600173 1:1 2:0.1957192 3:0.08395767 4:0.1818182 5:0.2252127 
-0.4411165585835898 1:1 2:0.1859553 3:0.1137405 4:0.3333333 5:0.2873085 
-0.359333243362671 1:1 2:0.3446862 3:0.1515104 4:0.8 5:0.5212305 
-0.001469883797710422 1:1 2:0.6786158 3:0.2045102 4:0.9333333 5:0.8313346 
-0.2871665031315149 1:1 2:0.3023256 3:0.04457825 4:0.9 5:0.5625433 
-0.05470808879230016 1:1 2:0.5847961 3:0.1894414 4:0.9285714 5:0.7509419 
-0.2762184658839024 1:1 2:0.3902533 3:0.06814708 4:0.8333333 5:0.6289569 
-0.6319432686828733 1:1 2:0.6972694 3:0.1027536 4:1 5:0.9656652 
-0.7629539275686307 1:1 2:0.4437034 3:0.05943667 4:1 5:0.8933333 
-0.2113498428099279 1:1 2:0.5944023 3:0.07628415 4:1 5:0.9393939 
-0.1861284283052301 1:1 2:0.610972 3:0.104985 4:1 5:0.9710145 
-0.02259062284337782 1:1 2:0.5230147 3:0.0914387 4:1 5:0.9153474 
-0.5636564997717209 1:1 2:0.4271551 3:0.1763135 4:0.875 5:0.7656183 
-0.4089948323031963 1:1 2:0.2829802 3:0.135501 4:0.8421053 5:0.491332 
-0.07391455628750684 1:1 2:0.3643056 3:0.1619367 4:0.85 5:0.5908229 
-0.8408353541531892 1:1 2:0.8191448 3:0.3950212 4:0.9464286 5:0.9517147 
-0.332473637425768 1:1 2:0.5947141 3:0.2475719 4:0.90625 5:0.8199949 
-0.04071570699867194 1:1 2:0.4697612 3:0.1284276 4:0.8125 5:0.6926866 
-0.2561464995087377 1:1 2:0.3985215 3:0.09320293 4:0.7692308 5:0.6703297 
-0.6922921153799024 1:1 2:0.5928753 3:0.4173747 4:0.625 5:0.704633 
-0.8858738413384666 1:1 2:0.1153324 3:0.1099738 5:0.06395096 
-0.5584555289070228 1:1 2:0.5029412 3:0.2879725 4:0.625 5:0.6764381 
-0.8112636541415053 1:1 2:0.6737345 3:0.4450309 4:0.8095238 5:0.9215261 
-0.8764162847749095 1:1 2:0.6867498 3:0.4851332 4:0.8518519 5:0.6766261 
-0.3757518004657714 1:1 2:0.4559575 3:0.4040128 4:0.6363636 5:0.8282343 
-0.3230959065542867 1:1 2:0.5018055 3:0.07727008 4:0.7407407 5:0.7826087 
-0.4875429489247676 1:1 2:0.4509158 3:0.4013012 4:0.6923077 5:0.8231876 
-0.5993385235031944 1:1 2:0.1486579 3:0.01548805 4:0.3636364 5:0.416 
-0.3461399947564348 1:1 2:0.2419767 3:0.0280684 4:0.4166667 5:0.4919786 
-0.09701172038094392 1:1 2:0.42572 3:0.0637233 4:0.65 5:0.7269373 
-0.2549416421756825 1:1 2:0.5254491 3:0.0925372 4:0.8055556 5:0.7789203 
-0.6322368251138594 1:1 2:0.3230509 3:0.0418356 4:0.5882353 5:0.6492891 
-0.05872522505197211 1:1 2:0.2864316 3:0.05088371 4:0.3090909 5:0.411773 
-0.7091924588248398 1:1 2:0.7374682 3:0.2094244 4:0.8190476 5:0.849954 
-0.6662288691993511 1:1 2:0.3797809 3:0.04557544 4:0.3650794 5:0.6166282 
-0.698271568020153 1:1 2:0.1153243 3:0.05927667 4:0.2258064 5:0.1462705 
-0.6730002852736725 1:1 2:0.6247164 3:0.1666465 4:0.68 5:0.8172685 
-0.06464875040514237 1:1 2:0.4375056 3:0.09997762 4:0.4893617 5:0.6848744 
