svm_type c_svc
kernel_type rbf
gamma 64
nr_class 2
total_sv 134
rho -0.136044
label 0 1
nr_sv 75 59
SV
0.6472630873546927 1:1 2:1 3:1 4:0.6210335 5:0.3806922 
0.2317795861657647 1:0.009273059 2:0.01229351 3:0.025 4:0.008857897 5:0.1607143 
0.6962478919503701 1:0.612353 2:0.476835 3:0.625 4:0.5233717 5:0.3132775 
0.1914562937097756 1:0.007206443 2:0.01435818 4:0.008631713 5:0.2058824 
0.3318326418255989 1:0.002331496 2:0.002177265 5:0.3181818 
0.8287517995904072 1:0.5603009 2:0.4587908 3:0.4642857 4:0.4103048 5:0.3858521 
0.5467744991921915 1:0.08467571 2:0.08188869 3:0.5 4:0.03894814 5:0.4881101 
0.3665576161853065 1:0.1214498 2:0.0822653 4:0.02358994 5:0.5977312 
0.2520006524744042 1:0.001225021 2:0.001976939 5:0.4375 
0.342331198001338 1:0.0006481348 2:9.848012e-05 
0.1218046029475613 1:0.0788564 2:0.08661874 3:0.06 4:0.00400193 5:0.01552511 
0.3358948233161352 1:0.08131241 2:0.08288855 3:0.4375 4:0.02864992 5:0.502924 
0.7452960699681783 1:0.6834771 2:0.4825521 3:0.5789474 4:0.6404438 5:0.2308522 
0.1925572085634351 1:0.002056027 2:0.0002748606 3:0.02439024 
0.08987971669993283 1:0.02602275 2:0.01449898 4:0.07137129 5:0.172093 
0.3828050456202982 1:0.2637758 2:0.3682532 4:0.0208901 5:0.8955495 
0.4595616065870624 1:0.7606363 2:0.6373811 3:1 4:0.7288381 5:0.2255602 
0.4472849040224 1:0.8 2:0.630278 3:1 4:0.7241622 5:0.2280135 
0.4471657333774255 1:0.2564141 2:0.4321162 4:0.05615498 5:0.7325922 
0.05329816702156621 1:0.1033758 2:0.06162639 3:0.3478261 4:0.1268577 5:0.04063861 
0.7489402493958803 1:0.6553639 2:0.303852 3:1 4:0.7177128 5:0.08905677 
0.7495210080517086 1:0.5514807 2:0.2627957 3:1 4:0.5987784 5:0.1411806 
0.4003667320147455 1:0.1502652 2:0.150723 4:0.01473891 5:0.8137255 
0.2420847406912078 1:0.1278727 2:0.0551575 4:0.01961048 5:0.8778802 
0.2687189099711291 1:0.1196229 2:0.1859992 4:0.007281424 5:0.6724138 
0.4268955787103471 1:0.129902 2:0.06356524 3:0.4210526 4:0.154528 5:0.04063861 
0.5319884616810575 1:0.331773 2:0.4267403 4:0.08506481 5:0.7313345 
0.3060906579692166 1:0.05519797 2:0.03294092 3:0.2380952 4:0.0336558 5:0.4134276 
0.729684307493575 1:0.2331803 2:0.07190923 3:0.3333333 4:0.3041811 5:0.07363014 
0.5892498482225093 1:0.05649274 2:0.02483552 3:0.3333333 4:0.1169591 5:0.1111111 
0.0372873915186096 1:0.085462 2:0.2086915 5:0.9483395 
0.7629961620753327 1:0.9905393 2:0.9886821 3:1 4:0.5009512 5:0.5011143 
0.6460530301703896 1:0.9855654 2:0.9277287 3:1 4:0.7306726 5:0.2703201 
0.275768835983637 1:0.0809959 2:0.1340944 5:1 
0.5986539395876139 1:0.2117386 2:0.1334107 5:1 
0.001709749505062114 1:0.05293466 2:0.03726591 4:0.03731765 5:0.539749 
0.4696901063930959 1:0.01005608 2:0.0138386 3:0.1666667 4:0.003311966 5:0.4038461 
0.2275182345713184 1:0.2576202 2:0.2977873 4:0.01760659 5:0.9146758 
0.2716321148700013 1:0.02085573 2:0.1328463 
0.2531621612421573 1:0.03805414 2:0.1384318 
0.1430303103607622 1:0.08866222 2:0.05361012 5:0.3628319 
0.3257542770692456 1:0.1797913 2:0.3543139 4:0.001812318 5:0.9551451 
0.4440422970443274 1:0.1000184 2:0.2787101 4:0.0007015698 5:0.9189687 
0.3911164109906637 1:0.05644558 2:0.193425 3:0.04166667 4:0.002331629 5:0.6578249 
0.243365759106801 1:0.05586971 2:0.07665028 3:0.1052632 4:0.00907258 5:0.6518219 
0.7580541478564462 1:0.0777512 2:0.00912617 4:0.1985294 
0.04388527482031956 1:0.06383431 2:0.01149777 3:0.03571429 4:0.1 
0.6570433393149857 1:0.00875 2:0.05190374 3:0.34375 5:0.8241758 
0.336570841471408 1:0.1171032 2:0.09943251 4:0.06001934 5:0.2861842 
0.2794984282483287 1:0.1521572 2:0.1390971 3:0.1875 4:0.07132263 5:0.3291139 
0.3352639675291913 1:0.1263441 2:0.08528695 4:0.08818105 5:0.2003546 
0.4304003289534686 1:0.1769713 2:0.1510123 3:0.2307692 4:0.08895735 5:0.3291139 
0.2110178148473525 1:0.002993564 2:0.004175212 5:0.7 
0.4659383701826964 1:0.1730048 2:0.1517567 3:0.375 4:0.184543 5:0.07327142 
0.5101241321015516 1:0.1410462 2:0.1065035 3:0.375 4:0.08054844 5:0.3291139 
0.724515703661621 1:1 2:1 3:1 4:0.8583812 5:0.1421743 
0.826688200150462 1:0.9409241 2:0.7912658 3:0.952381 4:0.8961039 5:0.1042074 
0.1033900606395325 1:0.0008237232 2:0.00300734 5:0.8571429 
0.5624274745468963 1:0.01021868 2:0.1431609 4:0.003783784 5:0.44 
0.3699371201345544 1:0.003474351 2:0.01531858 3:0.09090909 5:1 
0.1939096900891813 1:0.0006687174 2:0.003289288 5:0.8 
0.1494494669359609 1:0.0008024609 2:0.003308084 5:0.8333333 
0.1457613978571214 1:0.1705229 2:0.1160063 4:0.01205241 5:0.02980392 
0.7314545223882061 1:0.2623997 2:0.1202205 4:0.027139 5:0.02980392 
0.4897293550794111 1:0.07455838 2:0.0782858 3:0.2727273 4:0.00191411 5:0.9230769 
0.1007387394546578 1:0.9737418 2:0.9468913 3:1 4:0.8020116 5:0.1990637 
0.2428635124457922 1:0.05508475 2:0.0754432 3:0.1764706 4:0.001133952 5:0.9230769 
0.4584649325496299 1:0.0002314279 2:0.001270455 5:1 
0.5353932652598556 1:0.03296813 2:0.04850771 3:0.3650794 4:0.004542188 5:0.3444109 
0.6239433904739131 1:0.09479956 2:0.05001708 3:0.1764706 4:0.1959511 5:0.1857143 
0.5291541944103804 1:0.00513186 2:0.01088445 3:0.1612903 5:0.7777778 
0.05918261305823447 1:0.08695652 2:0.04294309 4:0.02357164 5:0.7786885 
0.1710572820479437 1:0.005682992 2:0.01093723 3:0.02439024 4:0.001402752 5:0.5272727 
0.3042203930587093 1:0.001850746 2:0.007320733 5:0.6129032 
0.244980756579409 1:0.06298929 2:0.04817881 3:0.1276596 4:0.08521595 5:0.1857143 
-0.01018444263887108 1:0.259326 2:0.1034377 3:0.3571429 4:0.4562409 5:0.03882305 6:1 
-0.4309385990987069 1:0.4339465 2:0.08798306 3:0.5909091 4:0.7651376 6:1 
-0.243195762992291 1:0.3029006 2:0.07265238 3:0.4375 4:0.59456 5:0.01758242 6:1 
-0.473910590149395 1:0.4700288 2:0.1366 3:0.5263158 4:0.7328969 5:0.03137255 6:1 
-0.07356654238824049 1:0.3526942 2:0.1022367 3:0.5121951 4:0.6392707 5:0.04420695 6:1 
-0.3637431791436614 1:0.1249092 2:0.05903946 3:0.25 4:0.2726408 5:0.1375969 6:1 
-0.8099970755312565 1:0.3172017 2:0.1085292 3:1 4:0.5623216 5:0.07477342 6:1 
-0.2247375391249616 1:0.5614996 2:0.179101 3:1 4:0.7889032 5:0.05101275 6:1 
-0.2822524163016037 1:0.6106264 2:0.2063205 3:1 4:0.761653 5:0.0769887 6:1 
-0.3269098755879188 1:0.6404674 2:0.2190149 3:1 4:0.7964217 5:0.06971385 6:1 
-0.5315934277726955 1:0.5054764 2:0.1369325 3:0.5652174 4:0.6048488 5:0.0284951 6:1 
-0.7298011118070447 1:0.4279172 2:0.1128333 3:0.5238096 4:0.4957125 5:0.03170829 6:1 
-0.4651954972460131 1:0.3486958 2:0.08527599 3:0.4117647 4:0.4190213 5:0.04386952 6:1 
-0.9065602245595474 1:0.2491822 2:0.05356506 3:0.1176471 4:0.3046512 6:1 
-0.1391984629114905 1:0.269888 2:0.1399755 3:0.6666667 4:0.3036608 5:0.2150655 6:1 
-0.9815393202542677 1:0.269888 2:0.1399755 3:0.6666667 4:0.3036608 5:0.2150655 6:1 
-0.4306073611630851 1:0.3095596 2:0.1010425 3:0.3076923 4:0.3507618 5:0.04742345 6:1 
-0.5523247567706945 1:0.1957192 2:0.08395767 3:0.1818182 4:0.2252127 5:0.06474191 6:1 
-0.001300450267526784 1:0.3474736 2:0.09354568 3:0.4736842 4:0.4812842 5:0.03092784 6:1 
-0.03095794125857392 1:0.2174761 2:0.05706633 3:0.2857143 4:0.3096376 5:0.03139013 6:1 
-0.5386414242561899 1:0.1859553 2:0.1137405 3:0.3333333 4:0.2873085 5:0.1265823 6:1 
-0.3147063901153149 1:0.3446862 2:0.1515104 3:0.8 4:0.5212305 5:0.1610247 6:1 
-0.06169487574949448 1:0.6786158 2:0.2045102 3:0.9333333 4:0.8313346 5:0.03930131 6:1 
-0.6311813523057984 1:0.3023256 2:0.04457825 3:0.9 4:0.5625433 5:0.02051282 6:1 
-0.1926781049417361 1:0.5847961 2:0.1894414 3:0.9285714 4:0.7509419 5:0.09926731 6:1 
-0.398140794332891 1:0.3902533 2:0.06814708 3:0.8333333 4:0.6289526 5:0.006937562 6:1 
-0.809778234130235 1:0.6972694 2:0.1027536 3:1 4:0.9656652 6:1 
-0.9301056477465014 1:0.4437034 2:0.05943667 3:1 4:0.8933333 6:1 
-0.2024450734455815 1:0.5944023 2:0.07628415 3:1 4:0.9393939 6:1 
-0.2458753303561293 1:0.610972 2:0.104985 3:1 4:0.9710145 6:1 
-0.1248031769992693 1:0.5230147 2:0.0914387 3:1 4:0.9153474 5:0.02756286 6:1 
-0.7793037152264282 1:0.4271551 2:0.1763135 3:0.875 4:0.7656183 5:0.1001981 6:1 
-0.7588649865862204 1:0.2829802 2:0.135501 3:0.8421053 4:0.491332 5:0.2181965 6:1 
-0.5022282134698801 1:0.3643056 2:0.1619367 3:0.85 4:0.5908229 5:0.1731294 6:1 
-1 1:0.8191448 2:0.3950212 3:0.9464286 4:0.9517147 5:0.02293194 6:1 
-0.3825641371136259 1:0.5947141 2:0.2475719 3:0.90625 4:0.8199949 5:0.08144797 6:1 
-0.1021902842744907 1:0.4697612 2:0.1284276 3:0.8125 4:0.6926866 5:0.01107011 6:1 
-0.3805643667117033 1:0.3985215 2:0.09320293 3:0.7692308 4:0.6703297 6:1 
-0.8970331419467926 1:0.5928753 2:0.4173747 3:0.625 4:0.704633 5:0.07573845 6:1 
-1 1:0.1153324 2:0.1099738 4:0.06395096 5:0.3294118 6:1 
-0.712616341910953 1:0.5029412 2:0.2879725 3:0.625 4:0.6764381 5:0.04575163 6:1 
-0.04384594698738123 1:0.6737345 2:0.4450309 3:0.8095238 4:0.9215261 5:0.02037475 6:1 
-1 1:0.6737345 2:0.4450309 3:0.8095238 4:0.9215261 5:0.02037475 6:1 
-1 1:0.6867498 2:0.4851332 3:0.8518519 4:0.6766261 5:0.287183 6:1 
-0.4708346986908813 1:0.4559575 2:0.4040128 3:0.6363636 4:0.8282343 5:0.0502017 6:1 
-0.3390016279464506 1:0.5018055 2:0.07727008 3:0.7407407 4:0.7826087 6:1 
-0.614761791507574 1:0.4509158 2:0.4013012 3:0.6923077 4:0.8231876 5:0.05111821 6:1 
-0.8248673157951071 1:0.1486579 2:0.01548805 3:0.3636364 4:0.416 6:1 
-0.4565706643356126 1:0.2419767 2:0.0280684 3:0.4166667 4:0.4919786 6:1 
-0.1039503702517156 1:0.42572 2:0.0637233 3:0.65 4:0.7269373 6:1 
-0.4188241241782531 1:0.5254491 2:0.0925372 3:0.8055556 4:0.7789203 6:1 
-0.7734560638762763 1:0.3230509 2:0.0418356 3:0.5882353 4:0.6492891 6:1 
-0.5514631962204138 1:0.2864316 2:0.05088371 3:0.3090909 4:0.411773 5:0.1218469 6:1 
-0.8875473068282722 1:0.7374682 2:0.2094244 3:0.8190476 4:0.849954 5:0.0408586 6:1 
-0.8464261110337888 1:0.3797809 2:0.04557544 3:0.3650794 4:0.6166282 6:1 
-0.2218958984996724 1:0.156013 2:0.07010591 3:0.2941177 4:0.2260557 5:0.1883681 6:1 
-0.9562307177771885 1:0.1153243 2:0.05927667 3:0.2258064 4:0.1462705 5:0.2533993 6:1 
-0.8586293264772157 1:0.6247164 2:0.1666465 3:0.68 4:0.8172685 5:0.004778287 6:1 
-0.04868780641857463 1:0.4375056 2:0.09997762 3:0.4893617 4:0.6848744 5:0.008432744 6:1 
